//
// Created by Ashraf Khan on 05/Aug/2017.
//

#ifndef VOKATURIANDROID_NETWORK9_100_20_H
#define VOKATURIANDROID_NETWORK9_100_20_H
#ifdef __cplusplus
extern "C" {
#endif

#include "Cues9.h"
#include "Emotions.h"

#define NUMBER_OF_HIDDEN1  100
#define NUMBER_OF_HIDDEN2  20


static double bias1 [NUMBER_OF_HIDDEN1] = { -0.202266, -0.435560, -0.281501, 0.065860, 0.128595, 0.050212, 0.220659, 0.135662, -0.395642, 0.062908, -0.339083, -0.116540, 0.123306, -0.228396, 0.255432, -0.461579, -0.043634, -0.449674, -0.394842, 0.167256, -0.008898, -0.295013, 0.119326, -0.643994, 0.007416, -0.250393, -0.593751, 0.274336, -0.004632, -0.003317, -0.188760, -0.257845, -0.054622, -0.459178, -0.626476, -0.214863, 0.040141, -0.487433, -0.000084, -0.280568, -0.221835, 0.072227, -0.013530, -0.289445, 0.380365, -0.046539, -0.163751, 0.112959, -0.181675, 0.088797, -0.052610, -0.017594, -1.126238, -0.435990, -0.559661, -0.468125, -0.110143, -0.317199, -0.235276, 0.017098, -0.048500, -0.580536, -0.190486, 0.146377, 0.377697, -0.527940, -0.278145, -0.623126, -0.417612, -0.696801, -0.187840, 0.016249, -0.150131, 0.023470, -0.269578, -0.624488, -0.328687, -0.153961, -0.684246, -0.330461, -0.717374, -0.503495, 0.060434, 0.160938, -0.051841, -0.172802, -0.560489, -0.391363, -1.036565, -0.074130, -0.239501, -0.230108, 0.022074, -0.284084, 0.060601, -0.139462, -0.277564, -0.372327, -0.272579, -0.286948 };
static double weight1 [NUMBER_OF_CUES9] [NUMBER_OF_HIDDEN1] = {
        { -0.806844, -0.551456, -0.292014, 0.235876, -0.126374, -0.301826, -0.169231, -0.150301, -0.795183, 0.144580, -0.561422, -0.478876, 0.082631, -0.329934, -0.845381, -0.659858, -0.106757, 0.547443, -0.269160, -0.020000, 0.145446, 0.071064, -0.257575, 0.605844, 0.508133, -0.257030, 0.587663, -0.383493, 0.033308, -0.267587, -0.123198, -0.169313, -0.217784, -0.413887, 0.261442, -0.527872, -0.028435, -0.324014, 0.127429, -0.503564, 1.336819, -0.060481, 0.020194, -0.091673, 0.675019, -0.111562, 0.591951, 0.255174, -0.196362, -0.090084, -0.312669, -0.222812, 2.250450, 1.271328, -0.310392, -1.118991, 0.126980, 0.454378, -0.066619, -0.216547, -0.539228, -0.779343, -1.062783, 0.301487, -0.832359, -0.509059, -0.186499, -0.528451, -0.709382, 0.396908, -0.160588, 0.191713, -0.079045, 0.299301, -0.672062, -0.299506, -0.272492, 0.431190, 0.046888, 0.413233, 1.153124, -0.570862, 0.203606, 0.276688, -0.036117, -0.157294, -0.009934, -0.769889, 0.837302, -0.062748, -0.199997, -0.325824, 0.076186, -0.369911, 0.276171, -0.670085, -0.264666, -0.317344, -0.280889, 0.970700 },
        { 0.185902, 0.069344, -0.048721, 0.170713, 0.461657, 0.223694, 0.409954, -0.046147, 0.228919, 0.262665, 0.050442, 0.039984, 0.186935, 0.085437, 0.360768, 0.090828, 0.169093, -0.017550, 0.085357, 0.490037, 0.109870, 0.023992, -0.814258, 0.455807, -0.079801, -0.063542, 0.602583, 0.270888, 0.087952, 0.199038, 0.000020, -0.007220, 0.000391, 0.181423, -0.117848, -0.005090, 0.185838, 0.095461, 0.152491, 0.140769, -0.567648, -0.139002, 0.026044, -0.012480, 0.048330, 0.234241, -0.501282, -0.070803, -0.091535, 0.221778, -0.004923, 0.018680, -0.493687, 0.117035, 0.063153, 0.043297, 0.035263, 0.257765, -0.263348, -0.334584, 0.142582, -0.354570, 0.347677, 0.022425, -0.434603, -0.312683, 0.001298, 0.084416, -0.119345, 0.028318, -0.103133, 0.225357, -0.030017, 0.235001, -0.053180, 0.048804, -0.040373, 0.228288, 0.077366, 0.234091, 0.192936, 0.205320, -0.061169, -0.548202, -0.077359, -0.059047, -0.997653, -0.461057, 0.850439, -0.108104, 0.020058, 0.161343, 0.083011, 0.031674, 0.134831, 0.195513, 0.090653, -0.056194, -0.107049, -0.236844 },
        { -0.156616, -0.192783, 0.012511, -0.046073, -0.098745, -0.474663, -0.791587, 0.146569, 0.502715, -0.131100, 0.296579, -0.442127, -0.089930, -0.066673, 0.835730, -0.054277, 0.260928, -0.318587, -0.142641, -0.014282, -0.049390, 0.003411, -0.604038, -0.391931, 0.221608, -0.185326, 0.009676, 0.402027, -0.084479, 0.282077, -0.069609, -0.075192, -0.022178, -0.335701, 0.181064, -0.081602, -0.026277, -0.142970, -0.093871, -0.196870, -0.902366, -0.428696, -0.018824, -0.043658, 0.261848, -0.170214, 0.118346, 0.103387, 0.052640, -0.377289, -0.038729, -0.254821, -1.589162, -1.321895, -0.032719, 0.250237, 0.037898, -0.160324, 0.118892, 0.951036, -0.852535, 0.021565, 0.248031, -0.208105, -0.105403, -0.179416, -0.112882, 0.286225, -0.380808, 0.241688, -0.092856, -0.398599, -0.182869, -0.107583, -0.028419, 0.085276, -0.106994, -0.032336, 0.337414, -0.182380, -0.578331, 0.181527, -0.120679, 0.028188, -0.032440, -0.041981, 0.214345, -0.344465, 0.032982, -0.057057, 0.020962, -0.139831, -0.100117, -0.156624, -0.089126, -0.179432, 0.013775, -0.124827, -0.030723, -0.423344 },
        { 0.177845, -0.473825, -0.296406, 0.068169, -0.149313, 0.160228, 0.220667, -0.008849, 0.705724, -0.606114, 0.454636, 0.175779, -0.021520, 0.150668, -0.478245, -0.508894, 0.222303, 0.612393, 0.013691, -0.035690, -0.076980, 0.013341, -0.584439, 0.207232, -0.334513, -0.066596, 0.065489, -0.018362, 0.039202, 0.246150, 0.122433, 0.129939, -0.120458, 0.141531, -0.083319, 0.136656, -0.062326, 0.047929, -0.143523, -0.537714, 0.451395, 0.131305, -0.094059, -0.273378, -0.450928, -0.022620, -0.311961, -0.222567, -0.203783, 0.035664, 0.081314, 0.273559, -0.101887, 0.473752, 0.293341, 0.294601, -0.292045, -0.037271, -0.020207, 0.021606, 0.221063, 0.293596, -0.086214, -0.325084, 0.026433, -0.279047, 0.115788, -0.107718, 0.619819, -0.073092, -0.160336, 0.395158, -0.146019, 0.073821, 0.168346, -0.200614, -0.038488, -0.308702, -0.243645, 0.034421, 0.470866, -0.404708, -0.015685, -0.063778, -0.168720, -0.108140, -0.044100, -0.222030, 0.134233, -0.200630, 0.116509, 0.231048, 0.082249, -0.285914, -0.354353, 0.168426, 0.121494, -0.021207, -0.171171, 0.095284 },
        { 0.091278, -0.176308, 0.017531, 0.032621, -0.162354, 0.174184, 0.258192, -0.022636, 0.177520, -0.485597, 0.244423, 0.200710, -0.102639, -0.030510, 0.024868, -0.198419, 0.149890, -0.239208, 0.070200, -0.158975, -0.147605, 0.158744, 0.714861, 0.268222, -0.112138, 0.292307, 0.271106, 0.048275, 0.002717, 0.025690, 0.095153, 0.096950, 0.057717, 0.094470, 0.702578, 0.052406, -0.047230, 0.106838, -0.175215, -0.193446, -0.130444, 0.172044, -0.037487, -0.060355, -0.344181, 0.017186, 0.221044, -0.065000, 0.405508, 0.083016, 0.031614, 0.159902, 0.234965, 0.140143, 0.206826, -0.004836, -0.089092, 0.169877, 0.119854, 0.042845, 0.326252, 0.142277, 0.219595, -0.078476, 0.292363, -0.117759, 0.088301, 0.408821, 0.310256, 0.491124, -0.011192, 0.037591, 0.244219, 0.008596, 0.038664, 0.588613, 0.368149, 0.160565, 0.701753, 0.153021, -0.012658, -0.170571, -0.057508, 0.730911, 0.213008, -0.003724, 0.404301, -0.057487, 0.574498, 0.291353, 0.002999, 0.007929, 0.012897, -0.118016, -0.219111, 0.067218, -0.040069, 0.389720, 0.432254, -0.230161 },
        { 0.133916, 0.106337, 0.065892, -0.152218, -0.138611, -0.193259, -0.086222, 0.182161, -0.053049, -0.023409, -0.217086, -0.266947, 0.026500, 0.087859, -0.113759, 0.183218, -0.054834, 0.250587, -0.332217, -0.142102, 0.076192, -0.019058, 0.057049, -0.270567, -0.226411, 0.199147, -0.103335, -0.003822, 0.044506, 0.045287, 0.081597, 0.109392, 0.049437, 0.132303, -0.060475, 0.049946, -0.035243, -0.306722, 0.103934, 0.120611, 0.227087, -0.068611, -0.000298, 0.112393, 0.014282, 0.038970, -1.224166, 0.081690, 0.269403, 0.025181, 0.041360, -0.035985, 0.836561, -0.212697, 0.180157, -0.344487, -0.046908, -0.255018, 0.129655, -0.627052, 0.635178, 0.019445, 0.142027, 0.191318, 0.305620, 0.151704, 0.164115, 0.012572, 0.092973, -0.001970, 0.097691, 0.171281, 0.279204, -0.167422, 0.088762, -0.009434, 0.150153, -0.239457, -0.156710, -0.207002, 0.138539, 0.246269, 0.238956, 0.367190, 0.149491, 0.028681, 0.505465, 0.264317, -0.252387, 0.220989, -0.297357, 0.065114, -0.007594, 0.078487, -0.019830, 0.138464, 0.051300, 0.127307, 0.279994, -0.208242 },
        { -0.123141, 0.040225, 0.003349, -0.106775, 0.024071, -0.000667, 0.096892, 0.044675, 0.299289, 0.200079, 0.352020, -0.017192, -0.116498, -0.043228, -0.111756, 0.136506, 0.047478, 0.059970, -0.156724, -0.058225, -0.122029, 0.054112, 0.267903, 0.244321, -0.264859, 0.127812, 0.220363, -0.123527, 0.029050, -0.021446, -0.222897, -0.219485, -0.226303, -0.443266, -0.283416, -0.041214, -0.009446, -0.138830, -0.103254, 0.021758, -0.010178, 0.305964, 0.009391, 0.136308, 0.146863, 0.320257, 1.007716, 0.016940, -0.274337, 0.061850, -0.113673, -0.194742, -0.012731, -0.280131, -0.542108, -0.348828, 0.014179, 0.148693, 0.072170, 0.082799, -0.143628, -0.222830, -0.178751, -0.033226, 0.244761, -0.116064, -0.236518, -0.299347, -0.665618, -0.083346, -0.026114, 0.066554, 0.193860, -0.059699, -0.140673, -0.196362, -0.031328, 0.115567, -0.259399, 0.136404, -0.415988, 0.218702, -0.168130, 0.201079, 0.034753, 0.032908, 0.078516, 0.103423, 0.354034, -0.005629, -0.232178, -0.039923, -0.052135, 0.023109, 0.013553, -0.100419, -0.016068, -0.020381, -0.143329, 0.345697 },
        { -0.067228, 0.011138, -0.142299, 0.712822, 0.499429, -0.013722, -0.070403, 0.152399, -0.383165, 0.921011, -0.237710, -0.282607, 0.462861, -0.238065, 0.355661, -0.046525, 0.011397, -0.129635, -0.211135, 0.549270, 0.637384, -0.153809, 0.905436, -0.121274, 1.193280, 0.082767, -0.040056, 0.341068, -0.044157, -0.063519, -0.131339, -0.150328, -0.019028, -0.200342, -0.349725, -0.170997, 0.108088, -0.352178, 0.703297, 0.151947, -0.263599, -0.295339, 0.199927, -0.279968, 0.137894, -0.323687, -0.397348, 0.086304, -0.071868, 0.029437, 0.011636, -0.059713, -0.590977, -0.155440, -0.379271, 0.204407, 0.441199, -0.174964, 0.083574, 0.032972, -0.004648, -0.141302, 0.228290, 0.052211, 0.928421, -0.046122, -0.158461, 0.002167, 0.256626, -0.381055, -0.109657, 0.000353, -0.063573, 0.709905, -0.142082, -0.170056, -0.105568, -0.172680, -0.294836, -0.154738, -0.282826, -0.539267, -0.022017, 0.039431, 0.027311, -0.113984, 0.493647, -0.130588, -0.110409, 0.061730, 0.069391, -0.300966, 0.188971, 0.031924, 1.186491, -0.067468, -0.301771, -0.106203, -0.111640, -0.343187 },
        { -0.152404, 0.010410, 0.139829, -0.013013, 0.467377, 0.167762, 0.141651, 0.117858, -0.406253, 0.361928, -0.008878, 0.231323, 0.184896, -0.251997, 0.438531, -0.312651, 0.039049, 0.434483, 0.458365, 0.283195, 0.148624, -0.082831, 0.272785, -0.163312, 0.670703, -0.096048, -0.279169, -0.068698, 0.020509, -0.131844, 0.054095, 0.021992, 0.042823, -0.132555, -0.011768, -0.174869, 0.144744, 0.633924, 0.250636, -0.221866, -0.181585, -0.073469, 0.140268, 0.042014, 0.128676, -0.040900, 0.950403, 0.091380, 0.149308, -0.023155, 0.096209, 0.050192, -0.327786, 0.757393, 0.219091, 0.361419, 0.440203, -0.179117, 0.036487, 0.399750, -0.219988, -0.388757, 0.301473, -0.012078, -0.173465, -0.073463, 0.000932, 0.150148, -0.476892, -0.174664, 0.172679, 0.165786, 0.144020, -0.168541, -0.160082, 0.106770, 0.098990, -0.217616, 0.037868, -0.157270, -0.560896, -0.166337, -0.163173, -0.041043, 0.211019, 0.090953, 0.341099, 0.030488, -0.604754, 0.326274, 0.247099, -0.276879, -0.043401, -0.085875, 0.506010, -0.150656, -0.461565, 0.105683, 0.117504, 0.012848 },
};
static double bias3 [NUMBER_OF_HIDDEN2] = { -0.616347, -0.252971, 0.009716, 1.243882, 0.299403, 0.026717, -0.008977, 0.090552, -0.009568, 0.753035, -0.504000, 0.568674, -0.144620, 1.535101, -0.031854, -0.707372, -0.005084, -0.003709, 0.255507, 1.042589 };
static double weight3 [NUMBER_OF_HIDDEN1] [NUMBER_OF_HIDDEN2] = {
        { 0.208253, 0.123570, 0.005105, -0.268225, 0.097823, -0.014925, -0.010413, 0.057863, 0.000113, 0.112236, -0.201409, -0.160394, 0.067760, -0.128754, 0.017007, 0.035352, -0.012872, 0.012057, 0.200266, -0.265004 },
        { 0.262189, -0.095530, 0.056573, -0.164719, 0.128312, -0.006299, -0.000096, 0.075533, 0.006540, 0.061496, -0.239434, -0.015843, -0.066879, 0.037308, -0.013348, -0.386821, -0.010575, 0.004351, 0.099890, 0.012407 },
        { 0.213997, -0.004103, 0.014703, -0.198256, 0.141241, -0.016716, -0.004791, 0.088375, 0.002533, 0.124811, -0.153504, -0.017255, 0.006369, 0.106303, -0.011568, -0.123156, 0.000951, -0.003734, 0.070136, -0.046539 },
        { 0.054621, 0.010939, -0.010845, -0.272491, 0.115944, -0.003208, -0.000478, 0.173313, -0.000634, 0.280816, 0.253047, -0.337145, 0.027144, -0.184498, 0.074394, 0.057720, 0.036128, 0.019680, 0.270376, -0.227206 },
        { -0.403324, -0.041000, 0.045711, 0.089785, -0.009181, -0.011702, -0.008995, 0.007203, -0.000114, -0.220075, 0.377671, 0.233205, -0.025062, -0.219785, -0.024829, 0.260858, -0.007397, -0.006690, 0.159332, 0.009676 },
        { 0.179685, -0.008730, -0.017337, -0.075429, 0.136800, -0.008568, 0.001907, -0.025794, 0.007327, 0.152178, 0.098524, 0.002263, -0.012369, -0.576614, -0.023234, 0.110097, -0.010632, -0.013782, 0.077061, 0.021987 },
        { 0.143769, -0.005629, -0.038641, -0.026627, 0.205729, 0.012079, 0.003535, -0.114480, 0.005527, 0.393938, 0.227484, 0.070102, -0.009907, -0.820391, -0.035808, 0.145923, -0.029564, -0.018523, 0.270395, 0.165581 },
        { -0.027895, -0.041585, 0.013273, 0.057149, -0.044339, -0.011207, -0.001445, -0.014349, -0.003115, -0.213619, 0.083356, 0.084199, -0.027349, 0.208937, -0.005445, -0.125344, 0.007661, 0.007189, -0.122692, 0.050981 },
        { 0.574267, -0.096608, 0.070096, -0.444736, -0.001024, 0.037993, -0.002212, -0.108722, 0.005088, 0.182177, 0.320894, -0.108618, -0.037825, -0.441744, 0.015204, 0.087705, 0.021822, 0.010204, 0.163251, -0.163693 },
        { 0.006364, -0.026440, 0.066264, -0.220286, -0.224299, -0.012493, -0.005937, -0.185620, -0.008556, -0.624563, 0.941302, 0.240266, 0.003027, 0.003244, -0.033550, 0.284355, -0.001992, -0.030701, -0.013083, 0.099292 },
        { 0.331449, -0.048066, 0.032494, -0.258044, -0.060571, 0.027292, -0.000391, -0.090187, -0.003835, 0.075580, 0.182273, -0.124699, -0.025385, -0.521208, 0.009936, -0.024297, -0.006248, 0.002717, 0.076128, -0.204984 },
        { 0.168614, 0.035549, 0.044516, -0.060004, 0.151846, -0.003853, -0.000893, -0.091297, 0.005802, 0.159294, 0.180575, 0.092083, 0.043869, -0.736897, -0.034581, 0.018562, -0.037617, -0.022366, 0.105985, 0.029349 },
        { -0.155315, 0.008738, 0.021295, -0.127673, 0.016414, -0.002727, -0.006495, 0.065667, -0.000101, -0.008545, 0.344552, -0.002534, 0.026051, -0.249221, 0.009823, 0.102196, 0.009835, 0.011721, 0.148069, -0.084288 },
        { -0.032395, 0.013512, 0.026272, -0.038942, -0.124503, -0.012404, 0.000913, -0.057911, -0.004670, -0.020958, -0.126777, -0.018230, 0.004557, -0.266802, 0.011494, 0.100182, 0.011725, -0.000337, 0.212937, -0.102488 },
        { 0.389962, 0.171393, 0.027892, 0.122769, -0.137486, -0.019095, -0.009758, 0.131367, -0.010879, -0.384203, -0.573749, 0.248674, 0.135379, 0.545056, 0.009146, 0.505450, -0.004161, 0.013226, -0.341229, 0.010649 },
        { 0.426065, -0.112208, 0.069694, -0.036062, 0.025189, -0.001491, -0.000912, 0.065060, 0.006655, 0.158602, -0.401229, -0.009063, -0.089962, 0.069558, -0.017400, -0.273064, -0.001569, 0.006848, 0.169696, 0.054687 },
        { 0.134642, -0.051414, -0.001460, -0.250827, 0.104819, -0.003795, 0.002183, 0.080753, 0.001064, 0.011435, -0.094160, -0.057629, -0.016118, -0.030895, 0.042238, -0.000921, 0.023575, 0.010710, 0.066349, -0.179881 },
        { -0.277116, -0.193288, -0.067033, -0.427453, 0.035616, 0.007948, -0.007143, 0.112484, 0.003297, -0.207171, -0.539104, 0.006419, -0.082712, 0.291822, 0.082173, -0.162667, 0.035858, 0.029823, -0.207800, -0.002266 },
        { 0.264215, -0.019893, 0.051124, 0.028576, 0.081725, -0.006254, -0.004029, -0.029776, -0.004136, 0.138979, 0.187780, 0.080172, 0.003364, -0.550827, -0.045794, -0.048089, -0.019502, 0.003618, 0.063475, -0.038426 },
        { -0.338689, -0.017961, 0.016557, 0.068125, 0.043566, -0.021589, 0.004391, 0.106365, -0.003936, -0.037273, 0.377540, 0.045683, 0.006243, -0.304461, 0.006216, 0.199323, 0.004724, 0.012690, 0.217567, -0.092176 },
        { -0.083632, 0.017950, 0.004720, -0.181806, -0.035998, -0.006807, -0.007714, 0.041867, 0.007484, 0.033990, 0.413250, -0.073121, 0.048148, -0.342837, 0.012098, 0.082491, 0.008179, -0.004196, 0.180040, -0.104233 },
        { -0.076504, 0.016671, -0.009927, -0.100897, -0.052472, 0.002212, 0.005314, -0.017281, 0.009157, -0.178886, 0.180414, -0.003342, 0.025181, 0.070889, 0.015346, 0.051690, 0.015628, -0.005075, -0.074754, -0.023783 },
        { -0.308259, -0.325060, -0.008855, -0.456703, 0.808235, 0.005119, -0.000358, 0.610823, 0.010688, 0.281315, -0.055660, -0.352419, -0.291103, -0.031595, 0.143074, -0.427503, 0.025776, 0.014879, 0.271277, -0.235035 },
        { -0.293140, 0.077759, -0.029803, -0.217261, 0.105627, 0.001449, 0.010420, 0.063212, 0.008300, -0.261124, -0.313814, -0.064119, 0.035724, 0.652755, 0.005582, 0.197355, 0.021801, 0.015248, -0.015680, -0.111155 },
        { -0.246513, -0.016906, 0.017486, -0.263853, -0.013257, -0.000521, -0.008880, 0.112468, 0.002981, 0.260168, 0.795506, -0.243587, 0.007303, -0.780646, 0.076735, 0.196017, 0.012834, 0.010410, 0.073591, -0.360686 },
        { -0.023051, -0.045236, -0.004643, 0.081473, 0.064166, -0.015531, 0.002684, 0.061867, 0.007377, 0.000922, 0.250912, -0.156226, -0.049222, -0.152334, 0.005516, -0.068635, -0.012943, -0.007255, 0.138141, -0.184835 },
        { -0.609165, 0.025518, -0.015721, 0.101645, 0.106901, -0.007829, -0.004192, 0.158125, -0.003140, -0.167273, 0.088729, -0.116707, -0.023069, 0.471227, 0.027555, -0.103184, 0.033008, 0.023928, 0.037553, -0.158569 },
        { 0.407776, 0.062431, 0.004755, 0.039820, 0.087158, -0.011698, -0.004430, 0.165818, 0.005056, 0.154340, -0.145469, -0.192519, 0.061470, 0.231531, 0.052649, 0.126511, 0.021411, 0.020809, 0.166415, -0.168268 },
        { -0.079440, 0.002148, -0.013476, 0.004552, 0.010353, -0.002868, 0.008998, -0.020720, -0.007897, -0.006856, -0.060252, 0.033516, 0.013952, -0.023489, -0.000740, 0.013548, 0.002319, -0.006338, 0.035643, 0.036513 },
        { 0.242936, -0.000575, 0.021087, -0.169448, 0.047786, 0.021002, -0.002756, 0.047231, 0.003263, 0.021549, -0.016187, -0.035001, 0.023772, 0.001224, 0.027364, 0.131282, 0.018294, 0.018839, 0.037502, -0.139873 },
        { 0.120141, 0.068814, 0.025094, -0.042279, -0.012690, 0.006454, 0.000253, -0.050449, -0.008496, -0.003485, 0.127783, 0.037465, 0.056269, -0.220460, 0.008490, 0.066171, -0.003060, 0.005242, -0.050036, 0.001210 },
        { 0.119510, 0.078107, 0.022307, 0.034657, -0.031731, 0.008569, 0.008819, -0.052392, 0.000634, -0.026785, 0.159608, 0.023053, 0.057585, -0.194753, 0.001107, 0.073972, -0.012850, -0.008483, -0.040827, -0.039027 },
        { 0.108042, 0.028110, 0.046847, -0.065573, -0.016625, -0.014966, 0.005967, 0.004147, 0.001160, 0.085504, 0.085727, 0.100299, 0.040180, 0.022247, -0.040255, -0.098602, -0.007428, -0.001883, -0.041309, -0.023087 },
        { 0.287394, 0.155273, 0.040347, 0.015608, -0.071185, -0.002573, 0.005272, -0.124686, 0.005566, 0.023800, 0.296385, 0.017845, 0.102504, -0.438518, -0.000196, 0.076497, -0.020808, -0.009141, 0.049521, -0.025446 },
        { -0.107973, -0.029522, 0.026417, -0.605763, -0.090484, 0.021928, 0.000334, -0.001506, -0.013037, -0.658056, 0.491467, 0.199130, 0.010686, 0.275412, 0.013546, -0.003869, 0.033126, 0.002359, -0.391293, 0.263493 },
        { 0.004788, 0.057897, 0.012948, -0.134708, -0.011069, -0.001093, 0.008182, 0.018913, -0.005295, -0.012277, -0.185570, -0.102695, 0.027834, -0.263571, 0.022767, 0.066773, 0.001577, 0.016325, 0.159324, -0.196780 },
        { -0.126553, -0.013794, 0.017943, 0.055004, 0.018571, 0.004236, -0.001047, 0.001823, -0.001491, -0.052915, 0.096870, 0.085516, -0.011379, -0.064958, -0.021067, 0.060643, -0.010380, -0.002706, 0.064355, 0.027795 },
        { 0.332975, -0.039287, 0.056337, -0.032453, 0.129868, -0.010311, -0.007178, -0.006305, 0.002019, 0.234798, 0.042446, 0.047256, 0.012054, -0.680782, -0.041869, -0.133659, -0.018561, -0.010672, 0.156576, -0.056202 },
        { -0.163490, 0.019199, 0.010853, -0.157940, -0.034947, -0.010207, -0.002775, 0.015907, -0.001741, -0.004981, 0.480822, -0.004845, 0.037248, -0.408785, 0.015294, 0.139154, -0.005640, 0.002776, 0.174364, -0.104211 },
        { 0.420682, -0.171128, 0.060442, 0.018219, 0.038198, -0.002896, 0.006274, 0.051740, -0.004657, 0.047111, -0.263168, 0.042922, -0.136647, 0.068085, -0.021782, -0.399616, -0.017944, 0.012766, 0.061230, 0.092599 },
        { 0.141203, 0.165344, -0.127588, 0.207892, -0.391063, 0.018345, -0.001723, -0.113892, 0.007065, 0.027187, -0.897268, -0.089692, 0.115767, -0.007923, 0.148589, 0.139769, 0.014590, -0.002478, -0.792172, 0.052399 },
        { -0.023804, 0.034727, -0.047426, 0.037145, 0.045683, 0.000919, 0.005073, -0.165370, 0.011030, 0.224104, 0.144973, 0.002870, 0.007566, -0.470051, -0.019543, 0.106011, -0.019598, -0.021846, 0.196530, 0.099285 },
        { -0.089386, -0.005997, 0.001924, -0.020627, -0.018749, 0.005269, -0.003234, -0.011649, 0.009112, -0.008648, 0.131462, 0.029957, -0.001237, -0.154425, 0.009682, 0.061814, -0.006927, -0.011749, 0.020300, -0.028794 },
        { 0.236104, -0.018887, 0.018763, -0.068186, 0.079531, -0.015468, 0.001098, 0.055605, -0.000411, 0.197307, 0.007214, -0.091615, -0.006988, 0.109353, 0.005381, -0.063770, -0.002472, -0.005187, 0.164273, -0.106586 },
        { 0.299484, -0.182221, 0.004814, 0.546312, -0.363143, -0.026365, -0.001741, -0.092123, -0.011121, -0.549182, 0.206577, -0.138038, -0.055821, -0.063170, 0.098233, 0.101153, 0.061475, 0.012480, -0.142168, -0.042839 },
        { -0.146849, 0.023566, -0.006779, 0.097092, -0.045475, 0.009746, -0.003176, -0.164741, -0.007688, 0.148457, 0.145621, 0.075450, 0.017915, -0.136708, -0.035103, 0.083833, -0.025524, -0.016451, 0.243706, 0.119148 },
        { 1.026926, -0.307791, 0.161404, -0.029080, 0.148916, 0.005826, -0.008882, -0.125637, -0.005016, 0.144321, -0.295778, 0.517787, -0.152804, 0.108222, -0.031864, 0.475072, 0.015798, -0.016514, -0.036138, -0.053945 },
        { 0.133222, -0.056984, 0.010714, 0.204995, -0.104862, -0.007872, 0.009278, -0.055800, 0.002907, -0.214752, 0.059931, -0.009671, -0.011221, -0.023037, 0.029993, -0.031651, 0.014851, 0.005337, -0.141524, 0.021787 },
        { 0.076574, 0.054707, -0.002701, -0.382357, -0.064023, -0.002886, 0.000339, 0.050761, 0.005198, -0.395888, 0.361688, -0.031707, 0.038048, 0.096710, 0.023397, 0.133894, -0.002612, -0.001836, -0.319879, 0.019220 },
        { 0.041156, 0.028896, -0.029167, -0.030825, 0.099997, 0.001181, -0.003863, -0.012259, 0.005510, 0.175775, 0.138125, 0.027902, 0.005108, -0.310853, -0.012804, 0.046615, -0.018389, 0.004005, 0.163351, 0.059816 },
        { 0.093217, 0.056794, 0.013895, -0.134546, 0.063164, -0.006104, 0.003011, 0.065004, -0.007440, 0.050644, -0.127547, -0.045664, 0.029675, 0.075827, 0.010678, -0.018478, -0.007201, 0.004192, 0.024519, -0.089328 },
        { 0.169234, 0.065592, 0.010320, -0.139632, 0.066000, 0.013083, 0.001366, -0.057233, 0.007605, 0.139877, 0.152360, 0.106366, 0.046936, -0.476584, -0.003740, 0.050113, -0.026151, -0.003922, 0.027333, 0.105111 },
        { 0.433687, 0.603121, -0.015940, 0.656028, -0.284088, -0.013997, -0.008550, -0.123557, 0.005181, 0.306110, -1.221691, 0.227064, 0.323777, 0.094732, 0.020932, 0.803026, -0.024572, -0.035573, -0.686838, -0.106695 },
        { 0.793586, -0.028003, 0.036940, -0.294513, 0.187235, 0.023111, -0.006927, -0.040199, -0.005712, 0.209377, -0.702481, 0.334942, -0.069032, -0.027376, -0.029253, 0.208144, -0.037610, -0.022027, -0.297103, 0.329900 },
        { 0.329894, 0.116787, 0.066040, -0.095512, -0.042018, 0.013201, 0.001471, -0.112666, 0.004176, -0.026266, 0.250979, 0.094738, 0.094668, -0.553922, 0.013586, 0.053688, -0.003655, -0.011582, -0.149413, 0.036578 },
        { 0.542332, 0.092949, 0.086835, -0.185138, -0.024527, -0.008128, -0.007666, -0.018273, -0.001381, 0.143299, -0.335245, 0.212601, 0.090055, -0.297532, -0.051705, 0.335724, -0.026413, 0.018792, 0.125484, -0.216662 },
        { -0.199838, -0.015252, 0.025921, -0.027005, -0.024334, -0.001136, 0.005928, -0.013972, 0.006763, 0.005429, 0.286777, 0.069106, -0.009385, -0.453910, 0.004484, 0.139840, -0.008407, -0.002597, -0.013797, -0.136638 },
        { -0.230741, 0.047751, -0.017049, -0.139406, 0.031424, 0.002289, 0.007598, -0.020799, -0.007918, -0.165624, -0.042962, 0.041967, 0.038043, 0.479168, -0.029998, 0.082747, 0.008703, 0.015376, -0.026139, 0.021214 },
        { -0.111945, -0.009924, 0.015075, 0.145388, -0.084989, -0.012444, -0.001200, -0.059587, -0.004607, -0.004547, 0.254698, 0.035321, -0.012111, -0.105258, -0.022046, -0.059689, -0.005685, -0.005440, -0.024110, -0.007094 },
        { 0.614130, 0.033414, 0.050610, -0.059406, -0.007287, -0.002504, 0.005328, 0.051200, -0.010377, 0.124483, -0.442279, -0.001084, 0.028406, -0.072846, 0.064941, 0.299640, 0.039916, 0.030049, 0.004321, -0.273878 },
        { 0.478215, 0.236229, -0.035115, -0.189309, 0.068822, -0.009005, -0.006292, 0.010025, 0.013384, 0.093219, 0.711501, -0.141556, 0.124109, -0.275201, 0.027922, 0.413683, -0.018945, -0.003166, 0.183760, -0.144957 },
        { 0.108196, 0.013578, 0.067213, -0.109620, -0.093032, -0.003044, 0.009148, -0.048693, -0.003042, 0.046146, -0.100220, -0.078395, 0.012464, -0.667094, 0.017178, 0.004151, -0.007906, 0.009334, 0.280365, -0.157711 },
        { 0.614370, 0.135688, 0.014060, -0.212413, 0.006916, 0.000013, 0.003755, 0.133064, -0.001082, -0.029136, -0.512780, -0.022182, 0.141802, 0.200949, 0.032690, 0.322381, 0.012238, -0.000337, -0.108277, -0.181698 },
        { 0.075691, -0.042274, 0.044211, 0.141555, -0.168807, 0.003275, -0.007616, -0.123786, -0.001764, -0.169724, 0.174134, 0.210423, -0.004947, -0.044942, -0.041912, 0.042258, -0.014254, -0.018344, -0.105431, 0.088273 },
        { -0.167715, -0.317276, 0.002893, 0.042070, 0.479203, -0.017661, 0.005631, 0.413604, -0.008260, -0.149922, 0.014951, -0.075655, -0.255065, 0.823214, 0.070164, -0.687785, 0.011615, 0.010312, -0.073673, 0.100701 },
        { 0.057408, -0.155284, 0.046123, 0.013132, 0.142983, -0.008363, -0.007283, 0.058865, 0.001231, 0.169495, -0.124539, 0.056133, -0.112805, -0.184022, -0.032669, -0.434042, -0.006448, -0.005599, 0.142777, -0.107911 },
        { 0.147718, 0.095414, 0.023351, 0.009277, -0.032925, 0.006918, -0.009806, -0.055648, 0.004056, -0.017363, 0.176275, 0.018492, 0.056976, -0.191558, 0.002449, 0.085531, -0.011554, -0.003311, -0.018852, -0.049452 },
        { 0.307416, 0.158618, 0.016026, -0.033946, -0.151702, -0.022344, -0.004361, 0.052456, -0.001499, -0.255386, 0.255157, -0.054601, 0.112705, -0.429607, 0.019423, 0.300008, 0.008660, 0.000483, -0.303434, -0.240076 },
        { 0.469126, 0.203472, 0.060634, -0.192914, -0.129928, 0.008072, -0.004400, -0.111906, -0.004766, 0.092651, 0.464490, 0.174844, 0.122991, -0.656405, -0.017720, 0.135194, -0.040313, 0.001783, 0.112470, -0.024575 },
        { -0.176872, 0.035572, 0.027645, -0.431900, -0.163440, 0.002585, -0.000551, -0.032674, -0.008341, -0.514614, 0.486135, 0.157162, 0.034859, 0.317053, -0.005194, 0.022683, 0.022397, 0.006810, -0.295682, 0.107660 },
        { 0.134464, -0.026391, 0.013850, -0.100121, 0.143133, -0.002204, -0.009829, 0.078662, 0.006686, 0.105613, -0.041472, -0.043736, -0.010307, 0.091087, 0.002058, -0.129971, 0.005603, -0.010410, 0.053940, -0.079625 },
        { -0.322312, -0.028969, -0.033635, -0.018343, 0.065230, 0.004056, 0.004225, 0.005583, -0.008353, -0.125825, -0.375099, 0.182665, 0.012428, -0.100182, -0.017925, -0.012422, -0.014952, 0.009018, 0.082250, 0.043787 },
        { -0.307196, -0.065465, -0.012044, 0.048684, 0.152236, -0.007070, -0.006373, 0.010455, -0.006220, -0.113855, 0.140664, -0.062380, -0.083207, -0.098517, -0.000232, -0.047711, -0.030795, -0.009969, 0.103101, 0.020054 },
        { 0.149904, 0.005215, -0.021713, -0.281306, 0.131266, -0.003594, -0.002890, 0.153809, 0.004988, 0.347972, 0.174872, -0.406191, 0.023670, -0.084169, 0.047497, -0.034427, 0.033048, 0.002538, 0.386107, -0.185825 },
        { 0.096149, 0.067980, 0.024720, -0.144246, 0.002738, -0.010096, -0.005008, 0.043646, 0.001610, 0.039563, -0.243291, -0.160592, 0.033773, -0.267910, 0.034257, 0.042004, 0.006886, 0.003962, 0.180139, -0.243320 },
        { -0.004176, 0.022583, 0.029143, -0.359742, -0.190028, -0.003382, 0.002341, -0.003278, -0.008570, -0.465895, 0.492538, -0.034699, 0.044533, -0.188265, 0.012683, 0.187986, 0.015293, 0.014979, -0.316270, -0.011556 },
        { -0.004712, 0.011865, 0.001554, -0.169088, -0.034181, -0.006557, 0.005665, 0.022374, 0.007000, -0.313407, 0.325928, -0.130851, -0.003334, -0.166489, 0.035426, 0.114394, -0.007618, 0.000839, -0.130204, -0.077171 },
        { -0.286981, -0.020969, 0.009839, -0.035473, 0.053575, -0.002344, -0.004831, -0.031642, 0.006519, -0.069027, 0.075240, 0.124124, 0.004046, 0.485243, -0.045786, -0.044251, 0.002175, -0.001466, 0.015252, 0.115902 },
        { -0.023006, 0.041635, 0.039704, -0.439802, -0.233253, 0.011557, 0.001161, -0.008941, 0.003297, -0.644272, 0.543895, 0.142747, 0.062848, -0.052347, -0.012531, 0.129166, 0.018128, 0.010890, -0.506270, 0.127338 },
        { -0.208939, 0.040843, -0.026698, -0.114773, 0.034394, -0.000647, -0.005213, 0.006386, 0.003213, -0.129535, -0.115789, 0.009861, 0.022572, 0.430781, -0.010743, 0.071101, 0.014138, 0.013403, -0.006021, 0.007681 },
        { 0.085439, 0.244831, -0.009259, 0.256028, -0.234373, 0.009224, 0.002348, -0.131321, -0.000247, 0.061490, -0.604456, 0.482558, 0.224317, 0.577694, -0.081987, 0.269412, -0.023240, -0.001840, -0.181163, 0.171879 },
        { 0.459236, 0.004599, 0.038303, -0.097768, -0.078284, -0.020425, -0.006631, 0.040553, -0.009892, 0.262389, -0.182625, -0.166559, 0.009762, 0.020576, 0.006343, -0.061866, 0.012522, -0.006672, 0.362567, -0.167128 },
        { 0.056769, -0.018486, 0.011166, 0.119578, -0.162204, 0.004219, 0.006903, -0.086626, -0.000229, -0.048893, -0.098956, 0.124806, 0.014239, -0.106037, -0.025875, -0.032170, -0.007499, -0.008648, 0.017989, 0.062267 },
        { -0.203400, -0.212777, -0.077529, -0.317875, 0.529067, 0.018481, 0.004597, 0.370006, -0.006698, -0.039104, 0.086039, -0.206416, -0.290138, 0.315646, 0.101997, -0.796672, 0.022566, 0.009092, -0.016109, 0.232187 },
        { -0.170991, -0.056841, -0.007905, -0.094686, 0.176291, 0.001408, -0.003014, 0.092620, -0.006598, -0.126900, 0.053229, -0.013285, -0.053127, -0.041331, 0.022396, -0.076324, -0.011157, 0.003955, -0.019441, -0.024024 },
        { 0.088224, 0.021754, 0.022581, -0.005980, 0.051432, -0.012616, -0.001108, 0.046423, -0.005153, 0.108633, -0.079483, -0.021970, 0.004939, 0.014788, 0.004657, -0.076676, 0.004262, 0.002816, 0.086973, -0.101634 },
        { -0.846907, -0.097170, 0.006726, 0.490801, -0.091466, -0.021398, 0.007130, -0.020434, 0.003566, -0.254484, 0.469723, 0.046694, -0.131055, -0.246813, 0.017427, -0.437865, -0.014664, -0.014446, -0.255008, -0.041866 },
        { 0.001797, 0.119171, 0.043985, 0.075454, 0.215063, -0.037718, -0.009223, 0.197476, -0.006875, 0.388109, -0.030036, -0.102901, 0.037196, -0.118620, -0.002676, -0.297903, -0.014436, -0.014084, 0.195186, -0.396939 },
        { -0.949943, 0.030173, -0.051017, -0.039061, 0.183506, 0.001625, -0.002114, 0.280104, -0.004954, -0.288530, 0.164787, -0.250634, -0.048772, 0.801397, 0.034714, -0.161206, 0.045620, 0.037787, 0.030767, -0.298710 },
        { -0.183118, -0.068621, 0.000034, -0.166653, 0.239031, -0.007257, -0.004685, 0.154343, 0.009879, -0.262415, 0.083345, -0.050272, -0.079378, -0.058120, 0.022395, -0.057294, -0.006533, 0.005400, -0.090036, -0.073277 },
        { 0.233564, -0.011719, 0.048069, -0.078705, -0.006115, -0.022602, 0.007523, -0.059874, -0.008691, 0.001304, 0.022481, 0.202323, -0.000337, -0.030199, -0.055996, 0.114825, -0.018351, -0.008580, -0.034095, -0.085086 },
        { -0.012834, 0.026747, 0.018507, -0.052440, -0.160492, -0.011129, 0.000831, -0.118058, -0.003841, -0.002150, -0.105601, 0.055709, 0.009969, -0.315278, -0.015429, 0.127282, -0.012202, 0.001344, 0.249006, -0.094050 },
        { 0.075108, 0.009132, -0.003250, -0.090783, 0.042106, 0.005205, -0.005718, 0.053768, -0.004369, 0.131103, 0.030966, -0.073416, 0.003665, -0.032395, 0.000245, -0.002142, 0.011566, 0.012475, 0.128438, -0.046625 },
        { 0.158195, -0.090951, 0.039136, -0.073862, 0.048806, 0.005667, 0.001858, 0.039581, 0.001465, 0.065281, -0.143112, 0.041047, -0.070542, 0.019168, -0.013823, -0.252434, -0.010507, -0.007508, 0.091824, 0.005980 },
        { -0.378388, 0.012346, 0.031884, -0.224835, -0.087870, -0.009833, 0.003221, 0.061887, 0.001012, 0.038104, 0.783093, -0.059075, 0.039579, -0.757227, 0.033479, 0.197346, 0.017805, -0.015537, 0.133900, -0.232207 },
        { 0.177587, 0.119422, 0.008541, -0.222789, 0.070121, -0.023528, 0.009323, 0.051753, -0.001052, 0.126817, -0.169586, -0.118330, 0.054775, -0.152450, 0.017863, 0.037925, -0.008445, 0.005173, 0.168867, -0.219173 },
        { -0.057909, -0.039424, 0.025273, 0.033948, -0.218974, -0.014836, 0.003925, -0.117450, -0.006843, 0.007536, 0.007263, 0.023346, -0.010636, -0.253581, -0.024953, 0.093956, -0.000757, 0.002453, 0.266638, -0.092059 },
        { -0.003630, 0.029444, 0.002214, -0.148426, -0.029931, -0.007954, 0.005053, 0.019166, -0.001440, -0.300328, 0.342620, -0.144458, 0.002018, -0.230716, 0.023937, 0.111422, 0.001156, 0.000597, -0.091059, -0.099894 },
        { 0.026655, 0.031793, 0.001736, -0.347570, -0.057377, -0.001756, -0.005177, 0.024896, 0.007009, -0.422591, 0.417072, -0.105725, 0.004267, 0.022962, 0.027219, 0.131390, -0.012112, 0.005256, -0.244442, -0.015064 },
        { 0.117980, -0.053806, -0.088927, 0.205864, -0.140110, -0.014388, -0.008734, -0.009453, -0.002818, -0.136961, -0.566285, -0.207861, -0.047610, 0.013249, 0.166895, 0.444071, 0.035585, 0.011791, -0.503369, -0.294454 },
};

static double bias5 [NUMBER_OF_EMOTIONS] = { -0.306633, 1.197323, -2.750720, 0.858467, 0.993550 };

static double weight5 [NUMBER_OF_HIDDEN2] [NUMBER_OF_EMOTIONS] = {
        { 0.830299, -1.515301, 1.366740, -1.193538, 0.501533 },
        { -0.547298, 0.200091, 0.387852, -0.224663, 0.200329 },
        { 0.143760, 0.107622, 0.150631, -0.115787, -0.275050 },
        { -1.002942, 0.675829, 0.014956, 1.308122, -0.996414 },
        { 0.429798, -0.303033, -0.716899, 0.033666, 0.533482 },
        { 0.086597, 0.008027, -0.038339, -0.039502, -0.005837 },
        { 0.006027, -0.006957, 0.007408, 0.005087, 0.004791 },
        { 0.379176, -0.331477, -0.624387, 0.180987, 0.389023 },
        { -0.008545, -0.003717, -0.001867, 0.003628, 0.016972 },
        { 0.812683, -1.476454, 0.732182, 0.733438, -0.802724 },
        { -0.211785, 0.761520, 0.339050, 1.152780, -2.046347 },
        { 0.242614, 0.690967, 0.224247, -0.724983, -0.407173 },
        { -0.352016, 0.210903, 0.242004, -0.197337, 0.081793 },
        { -1.195924, 1.204225, -0.853275, -1.253292, 2.099414 },
        { 0.017218, -0.142971, -0.188202, 0.169799, 0.150728 },
        { -1.045207, 0.191506, 0.404053, -0.416181, 0.880207 },
        { -0.064311, -0.079393, -0.011646, 0.056631, 0.090212 },
        { 0.020868, -0.079377, -0.015819, 0.025743, 0.046202 },
        { 0.980531, -0.927832, 0.370961, 0.674429, -1.089323 },
        { 0.820628, 0.666083, -0.373378, -0.915703, -0.187279 },
};


#ifdef __cplusplus
}
#endif
#endif //VOKATURIANDROID_NETWORK9_100_20_H
